tree
version=v2
num_class=1
num_tree_per_iteration=1
label_index=0
max_feature_idx=29
objective=binary sigmoid:1
feature_names=Column_0 Column_1 Column_2 Column_3 Column_4 Column_5 Column_6 Column_7 Column_8 Column_9 Column_10 Column_11 Column_12 Column_13 Column_14 Column_15 Column_16 Column_17 Column_18 Column_19 Column_20 Column_21 Column_22 Column_23 Column_24 Column_25 Column_26 Column_27 Column_28 Column_29
feature_infos=[6.9809999999999999:28.109999999999999] [9.7100000000000009:39.280000000000001] [43.789999999999999:188.5] [143.5:2501] [0.052630000000000003:0.16339999999999999] [0.023439999999999999:0.34539999999999998] [0:0.42680000000000001] [0:0.20119999999999999] [0.1167:0.30399999999999999] [0.049959999999999997:0.097439999999999999] [0.1115:2.8730000000000002] [0.36020000000000002:4.8849999999999998] [0.75700000000000001:21.98] [6.8019999999999996:542.20000000000005] [0.0017129999999999999:0.031130000000000001] [0.0030119999999999999:0.13539999999999999] [0:0.30380000000000001] [0:0.040899999999999999] [0.0078820000000000001:0.078950000000000006] [0.00089479999999999996:0.022859999999999998] [7.9299999999999997:36.039999999999999] [12.02:49.539999999999999] [50.409999999999997:251.19999999999999] [185.19999999999999:4254] [0.071169999999999997:0.22259999999999999] [0.027289999999999998:1.0580000000000001] [0:1.252] [0:0.2903] [0.1565:0.66379999999999995] [0.055039999999999999:0.20749999999999999]
tree_sizes=835 1001 1223 1239 1224 1237 1235 1232 1238 1243 1241 1235 1228 1244 1238 1245 1235 1249 1229 1242 1258 1235 1237 1244 1234 1247 1249 1230 1234 1234

Tree=0
num_leaves=10
num_cat=0
split_feature=22 7 27 20 21 27 12 4 21
split_gain=357.656 32.9382 28.4772 11.8818 10.5969 4.66719 1.58137 0.398531 0.220673
threshold=105.95000000000002 0.048290000000000007 0.16030000000000003 16.850000000000005 20.810000000000002 0.1358 3.5775000000000006 0.084480000000000013 33.350000000000001
decision_type=2 2 2 2 2 2 2 2 2
left_child=2 3 5 -2 -3 6 8 -6 -1
right_child=1 4 -4 -5 7 -7 -8 -9 -10
leaf_value=0.65519951302502477 0.65519951302502477 0.42639438182736289 0.30753457341299312 0.3802488091488429 0.27276807945178994 0.52445372376921795 0.57021475000875033 0.23027569794365277 0.63159263440939295
leaf_count=258 11 13 11 17 10 13 10 151 18
internal_value=0 -2.13432 1.39075 -0.0592807 -2.46823 1.51058 1.56549 -2.61278 1.59467
internal_count=512 202 310 28 174 299 286 161 276
shrinkage=1


Tree=1
num_leaves=12
num_cat=0
split_feature=22 7 27 21 21 27 12 6 21 4 0
split_gain=287.249 24.3545 23.8197 11.3568 7.71877 4.18043 1.44331 0.376246 0.206438 0.00554211 5.68434e-14
threshold=105.95000000000002 0.048290000000000007 0.16030000000000003 26.555000000000003 20.810000000000002 0.1358 3.5775000000000006 0.29575000000000001 33.350000000000001 0.085130000000000025 19.635000000000002
decision_type=2 2 2 2 2 2 2 2 2 2 2
left_child=2 3 5 -2 -3 6 8 9 -1 -6 -11
right_child=1 4 -4 -5 7 -7 -8 -9 -10 10 -12
leaf_value=0.15193385377530166 0.15968851489635064 -0.060037849290003366 -0.1615463170909085 -0.10993007165063501 -0.23081044763817882 0.027452034840052372 0.069859386698494591 -0.18588446904115172 0.12866138033651955 -0.22589471029228189 -0.22589471029228189
leaf_count=258 11 13 11 17 10 13 10 10 18 109 32
internal_value=0 -1.8432 1.30491 -0.0512346 -2.11838 1.42118 1.47521 -2.23714 1.50406 -2.26219 -2.25895
internal_count=512 202 310 28 174 299 286 161 276 151 141
shrinkage=0.1


Tree=2
num_leaves=15
num_cat=0
split_feature=22 27 22 21 4 27 13 9 21 21 5 4 6 12
split_gain=236.081 20.1806 20.149 17.9422 13.1011 3.81633 1.35494 1.23296 0.195859 0.189203 0.0526851 0.021283 0.00239569 0.00133841
threshold=105.95000000000002 0.16030000000000003 116.05000000000003 20.810000000000002 0.09056500000000002 0.1358 34.730000000000011 0.053005000000000004 33.350000000000001 21.830000000000002 0.089405000000000012 0.10395000000000001 0.27715000000000006 3.1965000000000003
decision_type=2 2 2 2 2 2 2 2 2 2 2 2 2 2
left_child=1 5 3 -2 -5 6 8 -4 13 -9 -11 -6 -12 -1
right_child=2 -3 7 4 11 -7 -8 9 -10 10 12 -13 -14 -15
leaf_value=0.14461350745556076 0.16062585246448322 -0.14260280017790097 -0.13098185186602082 0.056947571582654267 -0.21254525277547487 0.02489557292306949 0.066921703395205159 -0.23079562195407141 0.12156694307580625 -0.21598796500382025 -0.20053852559968577 -0.20043906185412463 -0.20351374427706259 0.14714682568833909
leaf_count=247 13 11 10 12 10 13 11 10 18 10 111 14 12 10
internal_value=0 1.23408 -1.63879 -0.496289 -1.22 1.34738 1.40148 -1.99195 1.43171 -2.03934 -2.01959 -2.05462 -2.00829 1.44714
internal_count=512 310 202 49 36 299 286 153 275 143 133 24 123 257
shrinkage=0.1


Tree=3
num_leaves=15
num_cat=0
split_feature=7 3 22 21 21 22 13 19 21 22 27 9 0 6
split_gain=197.974 19.2408 18.7299 8.19473 4.23543 2.98248 1.11605 0.356521 0.210608 0.161362 0.0522393 0.0192562 0.00290429 0.00127974
threshold=0.050880000000000009 696.25000000000011 101.80000000000003 21.185000000000006 24.795000000000005 108.25000000000001 33.695000000000007 0.0075825000000000007 33.350000000000001 107.05000000000001 0.12700000000000003 0.053390000000000007 14.490000000000002 0.27715000000000006
decision_type=2 2 2 2 2 2 2 2 2 2 2 2 2 2
left_child=1 5 4 -4 -2 6 8 9 10 -5 12 -11 -1 -13
right_child=2 -3 3 7 -6 -7 -8 -9 -10 11 -12 13 -14 -15
leaf_value=0.13866770582384683 0.14888881911680665 -0.1151174532923241 -0.02438175785900306 -0.20943247088542508 -0.047466602070491214 0.031283466471343273 0.072780496479348519 -0.14548631952705166 0.11495140461188565 -0.19141390350836385 0.15388238093781581 -0.18212068283991598 0.14249398187613424 -0.1843792621543669
leaf_count=232 10 14 15 10 10 13 13 10 18 10 11 125 10 11
internal_value=0 1.1677 -1.50235 -1.69627 0.465713 1.29743 1.34743 -1.82256 1.37868 -1.84615 1.39543 -1.82931 1.3883 -1.82304
internal_count=512 311 201 181 20 297 284 166 271 156 253 146 242 136
shrinkage=0.1


Tree=4
num_leaves=15
num_cat=0
split_feature=7 3 22 21 29 7 21 4 28 16 23 27 9 22
split_gain=167.025 16.609 15.55 7.04997 3.70332 3.0458 0.658465 0.868356 0.421933 0.326724 0.100366 0.0486627 0.0109503 0.0106709
threshold=0.050880000000000009 696.25000000000011 101.80000000000003 21.185000000000006 0.095955000000000026 0.044455000000000008 33.350000000000001 0.086515000000000022 0.19935000000000003 0.085560000000000011 784.1500000000002 0.12385 0.053390000000000007 105.15000000000002
decision_type=2 2 2 2 2 2 2 2 2 2 2 2 2 2
left_child=1 5 4 -4 -2 6 8 -8 -1 10 -5 13 -12 -10
right_child=2 -3 3 9 -6 -7 7 -9 11 -11 12 -13 -14 -15
leaf_value=0.091015193215414583 0.14159711024018792 -0.10239824591608758 -0.021847014628750397 -0.19002768006640114 -0.044268007313426408 0.028495610842971822 0.13778656451385238 0.044712927667994284 0.13393155671343568 -0.13262466101485479 -0.17552428574573375 0.1490117876761009 -0.1685907603890176 0.14133358236395568
leaf_count=12 10 14 15 10 10 15 10 10 229 10 10 11 136 10
internal_value=0 1.11449 -1.38285 -1.56133 0.430881 1.24281 1.2985 0.908622 1.3298 -1.68138 -1.7043 1.34993 -1.69072 1.34265
internal_count=512 311 201 181 20 297 282 20 262 166 156 250 146 239
shrinkage=0.1


Tree=5
num_leaves=15
num_cat=0
split_feature=23 27 21 6 13 8 21 22 21 27 22 7 16 9
split_gain=142.734 29.9445 14.6685 4.94105 2.07713 0.873777 0.71528 0.886081 0.277895 0.0281218 0.0263414 0.00603043 0.00188672 0.000772305
threshold=874.85000000000014 0.1358 25.810000000000006 0.071475000000000011 36.925000000000004 0.18805000000000002 33.350000000000001 85.835000000000022 21.830000000000002 0.13765000000000002 105.85000000000001 0.044455000000000008 0.077480000000000007 0.054220000000000011
decision_type=2 2 2 2 2 2 2 2 2 2 2 2 2 2
left_child=1 4 -3 -2 6 -4 10 -8 -5 -10 11 -1 13 -11
right_child=3 2 5 8 -6 -7 7 -9 9 12 -12 -13 -14 -15
leaf_value=0.12952592694687795 -0.045366999166848311 0.084911095959117222 -0.10831674160346055 -0.19426701929527612 0.036711626979544373 -0.18539146154979794 0.13418812940376842 0.038175925145964226 -0.169198748752307 -0.15988923575742617 0.14153513021441952 0.13381234322289573 -0.16097708172298039 -0.15799022952037764
leaf_count=238 17 18 10 10 13 17 10 10 11 10 10 19 11 108
internal_value=0 0.924892 -0.622454 -1.49586 1.22513 -1.57411 1.26997 0.855174 -1.61695 -1.59263 1.30359 1.29862 -1.58396 -1.58152
internal_count=512 345 45 167 300 27 287 20 150 140 267 257 129 118
shrinkage=0.1


Tree=6
num_leaves=15
num_cat=0
split_feature=22 27 21 21 15 7 12 6 21 7 7 9 13 19
split_gain=122.825 12.6066 12.2019 8.82618 7.82951 4.65642 1.43774 0.318886 0.199689 0.0975159 0.00268875 0.00236375 0.00111553 0.00104716
threshold=105.95000000000002 0.1358 20.810000000000002 26.320000000000004 0.023120000000000005 0.042890000000000005 3.5775000000000006 0.29575000000000001 33.350000000000001 0.053725000000000002 0.044455000000000008 0.053835000000000008 32.535000000000004 0.0069395000000000012
decision_type=2 2 2 2 2 2 2 2 2 2 2 2 2 2
left_child=1 6 4 -3 -2 -4 8 9 10 -7 12 -11 -1 -13
right_child=2 3 5 -5 -6 7 -8 -9 -10 11 -12 13 -14 -15
leaf_value=0.12586351431450579 0.1558331941480969 0.11621550237508899 -0.032180479335604535 -0.14134631542610837 -0.09884012999215061 -0.16997224941671624 0.037154577159063749 -0.11270879271765999 0.10049238330652883 -0.15296394631393517 0.12910877113897007 -0.14941216313893474 0.12847041626562344 -0.1514104980806367
leaf_count=231 11 10 17 14 10 11 10 10 18 10 17 120 10 13
internal_value=0 1.04122 -1.20114 -0.3854 0.301064 -1.38083 1.20748 -1.48974 1.24361 -1.51376 1.26195 -1.49849 1.25977 -1.49609
internal_count=512 310 202 24 21 181 286 164 276 154 258 143 241 133
shrinkage=0.1


Tree=7
num_leaves=15
num_cat=0
split_feature=23 27 21 6 13 21 21 29 21 22 27 7 5 13
split_gain=106.75 22.8161 10.6392 3.76128 1.90424 0.852076 0.751077 0.956628 0.159054 0.0280976 0.0114414 0.00350153 0.00178754 0.000319077
threshold=874.85000000000014 0.1358 25.810000000000006 0.071475000000000011 36.925000000000004 29.805000000000003 33.350000000000001 0.072860000000000022 21.830000000000002 105.85000000000001 0.13765000000000002 0.044455000000000008 0.21500000000000005 29.935000000000006
decision_type=2 2 2 2 2 2 2 2 2 2 2 2 2 2
left_child=1 4 -3 -2 6 -4 9 -8 -5 11 -10 13 -12 -1
right_child=3 2 5 8 -6 -7 7 -9 10 -11 12 -13 -14 -15
leaf_value=0.12280195061338361 -0.042573870418459475 0.076206294736162236 -0.08593768518078776 -0.17067295548734004 0.03149645785843417 -0.16383397341573805 0.12863424432395806 0.024212929259399999 -0.15021514499180255 0.13567580323790204 -0.1427540303375272 0.12638268175721384 -0.14552206056975275 0.12397586302853672
leaf_count=222 17 18 10 10 13 17 10 10 11 10 117 19 12 16
internal_value=0 0.86023 -0.513994 -1.34136 1.15103 -1.35012 1.19936 0.755401 -1.45593 1.23734 -1.43603 1.2316 -1.43017 1.22883
internal_count=512 345 45 167 300 27 287 20 150 267 140 257 129 238
shrinkage=0.1


Tree=8
num_leaves=15
num_cat=0
split_feature=20 27 21 1 13 8 11 7 21 22 13 9 7 15
split_gain=92.1943 19.6924 7.98027 6.98651 2.12377 0.855163 0.366559 0.43689 0.205234 0.0123556 0.00803558 0.00269081 0.00242824 0.000499787
threshold=16.765000000000004 0.1358 25.810000000000006 16.110000000000003 36.925000000000004 0.18940000000000004 1.9280000000000002 0.050880000000000009 33.350000000000001 105.15000000000002 131.90000000000003 0.053390000000000007 0.044455000000000008 0.050890000000000005
decision_type=2 2 2 2 2 2 2 2 2 2 2 2 2 2
left_child=1 4 -3 -2 8 -4 7 -5 9 12 11 -9 -1 -13
right_child=3 2 5 6 -6 -7 -8 10 -10 -11 -12 13 -14 -15
leaf_value=0.12023832288147554 0.0094517258800047715 0.065395674168763115 -0.076470644665901213 -0.18031829398622534 0.021485543056918049 -0.15775158038413653 -0.10149504642112146 -0.14083950667995063 0.09417410603764198 0.12922793964507215 -0.14316673324906079 -0.13689219992846907 0.12326698757274611 -0.13847966930836336
leaf_count=237 16 17 10 11 12 15 12 10 19 10 13 100 19 11
internal_value=0 0.853624 -0.484769 -1.23866 1.13494 -1.25624 -1.3873 -1.41834 1.18835 1.20872 -1.37957 -1.37377 1.2048 -1.37052
internal_count=512 339 42 173 297 25 157 145 285 266 134 121 256 111
shrinkage=0.1


Tree=9
num_leaves=15
num_cat=0
split_feature=22 21 24 27 24 7 21 10 20 7 21 27 10 24
split_gain=80.2282 9.71773 8.89499 5.95137 3.90138 2.07518 2.8319 1.7018 0.641846 0.280678 0.24714 0.0426062 0.00123779 0.000910383
threshold=105.95000000000002 20.810000000000002 0.17835000000000004 0.13900000000000004 0.10935000000000002 0.052175000000000006 24.795000000000005 0.5163500000000002 16.485000000000003 0.050880000000000009 33.350000000000001 0.12700000000000003 0.4129000000000001 0.11925000000000001
decision_type=2 2 2 2 2 2 2 2 2 2 2 2 2 2
left_child=2 3 5 -2 -3 7 -7 10 -6 -10 11 12 -1 -11
right_child=1 4 -4 -5 8 6 -8 -9 9 13 -12 -13 -14 -15
leaf_value=0.11797487194080505 0.14830361727345262 -0.0042328218264377198 -0.10973178370336741 -0.0789695356174452 -0.090014717668165295 0.1319708199743107 -0.045556008895883106 0.014144117851132482 -0.16869252463611761 -0.13483054741409958 0.088001946604569739 0.13366301720104987 0.12077148583428952 -0.13255958899490944
leaf_count=229 11 13 10 10 18 10 10 10 10 10 18 11 12 130
internal_value=0 -1.02818 0.949304 0.335404 -1.21077 1.04979 0.329194 1.11965 -1.30777 -1.35731 1.16594 1.19003 1.18125 -1.32726
internal_count=512 202 310 21 181 300 20 280 168 150 270 252 241 140
shrinkage=0.1


Tree=10
num_leaves=15
num_cat=0
split_feature=23 27 21 6 13 21 21 11 21 22 27 7 16 21
split_gain=70.7043 16.1282 7.13018 3.56733 1.8545 0.778269 0.769925 0.961067 0.116135 0.0229581 0.00424582 0.00255689 0.00100037 0.000406589
threshold=874.85000000000014 0.1358 25.810000000000006 0.071475000000000011 36.925000000000004 29.805000000000003 33.350000000000001 1.6345000000000003 21.830000000000002 105.85000000000001 0.13765000000000002 0.048290000000000007 0.077480000000000007 24.795000000000005
decision_type=2 2 2 2 2 2 2 2 2 2 2 2 2 2
left_child=1 4 -3 -2 6 -4 9 -8 -5 11 -10 -1 13 -12
right_child=3 2 5 8 -6 -7 7 -9 10 -11 12 -13 -14 -15
leaf_value=0.11602616869841645 -0.026903555567813958 0.064780236870964514 -0.066561600231839241 -0.15341395375255409 0.022238345572543502 -0.1448805358367346 0.0096758826636630067 0.12212852544056213 -0.13346759237737205 0.12837549368498721 -0.12986250721489054 0.11982256581099185 -0.13084234353802535 -0.12834082436165958
leaf_count=243 17 18 10 10 13 17 10 10 11 10 11 14 11 107
internal_value=0 0.778551 -0.415988 -1.18125 1.06563 -1.15151 1.12363 0.642642 -1.31053 1.16875 -1.29093 1.16259 -1.28695 -1.28486
internal_count=512 345 45 167 300 27 287 20 150 267 140 257 129 118
shrinkage=0.1


Tree=11
num_leaves=15
num_cat=0
split_feature=7 22 3 21 4 21 6 28 28 22 27 13 23 24
split_gain=61.8301 8.94337 8.66552 4.15827 2.58185 2.09215 2.74067 0.647264 0.524536 0.142356 0.0417767 0.0219888 0.0141122 0.00230172
threshold=0.048290000000000007 101.80000000000003 696.25000000000011 20.810000000000002 0.10885000000000002 33.350000000000001 0.040305000000000007 0.19935000000000003 0.24345000000000003 111.10000000000001 0.12910000000000002 34.730000000000011 805.30000000000007 0.11755
decision_type=2 2 2 2 2 2 2 2 2 2 2 2 2 2
left_child=2 4 5 -3 -2 7 -7 -1 -5 -10 11 12 -9 -11
right_child=1 3 -4 8 -6 6 -8 10 9 13 -12 -13 -14 -15
leaf_value=0.047411772654287948 0.13401856318678804 -0.0038638263432633222 -0.067612238544946662 -0.078842148513791385 -0.032251907897119243 0.12055738445376932 -0.059610057404464782 0.11422434514327143 -0.14665714029981586 -0.12900662395474413 0.13168242146711193 0.12687053277477719 0.12437785050324315 -0.12520395040860269
leaf_count=12 12 15 14 14 11 12 10 227 19 10 10 10 10 126
internal_value=0 -0.946108 0.904062 -1.12137 0.515968 1.05054 0.303271 1.13226 -1.2446 -1.28569 1.1641 1.15482 1.14787 -1.25503
internal_count=512 207 305 184 23 291 22 269 169 155 257 247 237 136
shrinkage=0.1


Tree=12
num_leaves=15
num_cat=0
split_feature=27 3 13 1 27 19 28 4 21 1 13 22 25 22
split_gain=54.7921 11.9113 5.91964 5.37729 2.4223 2.71616 0.512395 0.44678 0.283236 0.15007 0.0387639 0.0323127 0.00775924 0.00332868
threshold=0.14235000000000003 696.25000000000011 22.335000000000004 19.950000000000006 0.11805 0.0038150000000000002 0.19935000000000003 0.089910000000000004 33.350000000000001 16.395000000000003 36.925000000000004 107.45000000000002 0.21145000000000003 103.80000000000003
decision_type=2 2 2 2 2 2 2 2 2 2 2 2 2 2
left_child=1 4 -2 -3 6 -6 -1 -4 10 -9 13 -11 -13 -8
right_child=2 3 7 -5 5 -7 8 9 -10 11 -12 12 -14 -15
leaf_value=0.051573046246957743 0.022981319532642853 0.060080258820603839 -0.072331174644285651 -0.14746177596308457 -0.02567114311801736 0.12689207371612746 0.11289658042270959 -0.151909360978881 0.078510776333152926 -0.1370284411906651 0.12904175039842017 -0.12953598847271877 -0.12235531608344972 0.11805682548409975
leaf_count=13 17 10 10 17 19 13 227 10 18 10 10 10 117 11
internal_value=0 0.761533 -1.06771 -0.648422 0.973063 0.325033 1.0807 -1.23209 1.11115 -1.26774 1.1419 -1.2418 -1.22975 1.13179
internal_count=512 338 174 27 311 32 279 157 266 147 248 137 127 238
shrinkage=0.1


Tree=13
num_leaves=15
num_cat=0
split_feature=23 27 26 1 27 23 23 11 4 11 27 21 5 12
split_gain=48.0136 11.6317 3.58077 3.16392 6.1609 1.40996 0.899693 0.793577 0.532475 0.448819 0.234058 0.0469649 0.0417953 0.0142255
threshold=874.85000000000014 0.16030000000000003 0.22440000000000002 21.295000000000005 0.12195000000000002 650.95000000000016 811.85000000000002 2.0845000000000007 0.10830000000000002 0.65620000000000012 0.13900000000000004 21.955000000000002 0.086240000000000011 3.2705000000000006
decision_type=2 2 2 2 2 2 2 2 2 2 2 2 2 2
left_child=1 3 -2 6 5 -5 7 10 -3 -4 13 -11 -13 -1
right_child=2 8 9 4 -6 -7 -8 -9 -10 11 -12 12 -14 -15
leaf_value=0.11179443424501873 0.013482200729465738 -0.058032664977015674 -0.069708428631539268 0.11521073373927433 -0.11008833430081418 0.0097258699025674304 0.043817527701972919 0.033218846567040175 -0.13533269199680739 -0.13820589955085011 0.14646987621672333 -0.13615544110178954 -0.11990423741060646 0.12178174508632551
leaf_count=205 11 10 10 42 12 14 15 12 11 10 12 10 126 12
internal_value=0 0.713858 -1.06879 0.89091 0.358822 0.857958 1.06203 1.11688 -0.999686 -1.1881 1.15872 -1.22839 -1.21382 1.12538
internal_count=512 345 167 324 68 56 256 241 21 156 229 146 136 217
shrinkage=0.1


Tree=14
num_leaves=15
num_cat=0
split_feature=7 22 21 3 24 21 28 28 14 21 27 7 22 13
split_gain=42.3023 6.79298 6.97906 6.42811 2.03623 1.96946 2.50876 0.709871 0.709137 0.0466917 0.0293068 0.0170891 0.00892552 0.00495321
threshold=0.048290000000000007 115.35000000000001 25.810000000000006 696.25000000000011 0.14075000000000001 33.350000000000001 0.26440000000000002 0.19935000000000003 0.0060600000000000003 21.830000000000002 0.12385 0.066120000000000012 105.85000000000001 32.850000000000009
decision_type=2 2 2 2 2 2 2 2 2 2 2 2 2 2
left_child=3 2 4 5 -2 7 -7 -1 -4 -3 12 -10 13 -9
right_child=1 9 8 -5 -6 6 -8 10 11 -11 -12 -13 -14 -15
leaf_value=0.034752543338293473 0.13451474255213799 -0.13507035210832999 -0.046357519274012798 -0.054320109568839238 0.0028047390000888435 0.11647355472125194 -0.067748544728890275 0.11019774844554603 -0.13630836916409675 -0.11800656211347749 0.12398235155497411 -0.12147504337136666 0.11926344362316915 0.11649938582960025
leaf_count=12 16 10 10 14 14 12 10 221 10 137 14 10 10 12
internal_value=0 -0.857965 -0.157997 0.835057 0.701922 0.98882 0.218503 1.08251 -1.02573 -1.19559 1.12221 -1.29669 1.11142 1.10622
internal_count=512 207 60 305 30 291 22 269 30 147 257 20 243 233
shrinkage=0.1


Tree=15
num_leaves=15
num_cat=0
split_feature=27 13 13 21 24 22 21 1 16 1 27 23 25 7
split_gain=37.1753 8.41026 4.70661 3.76254 2.79006 2.27038 0.813651 2.1541 0.415194 0.060269 0.0234818 0.0176516 0.00376477 0.00174425
threshold=0.14235000000000003 35.185000000000009 22.335000000000004 23.350000000000005 0.11090000000000001 110.25000000000001 31.675000000000004 24.240000000000006 0.080890000000000017 16.395000000000003 0.12700000000000003 796.6500000000002 0.20965000000000003 0.048290000000000007
decision_type=2 2 2 2 2 2 2 2 2 2 2 2 2 2
left_child=1 5 -2 -3 -5 6 10 -8 9 -4 13 -11 -13 -1
right_child=2 3 8 4 -6 -7 7 -9 -10 11 -12 12 -14 -15
leaf_value=0.10937063850068079 0.02233938097256935 0.091864507682632116 -0.13620531816499545 0.018985397545193645 -0.14997516560525487 0.0040167321750195538 -0.05004590021382424 0.11445220155629608 -0.061670664215051546 -0.12741629100033489 0.12377641959025863 -0.12114747156926381 -0.1155796498654153 0.11344568467822053
leaf_count=234 17 10 10 10 17 14 10 22 10 10 10 10 117 11
internal_value=0 0.695495 -0.976528 -0.39417 -0.886985 0.93299 1.02829 0.586242 -1.15081 -1.19036 1.10464 -1.17118 -1.16076 1.09606
internal_count=512 338 174 37 27 301 287 32 157 147 255 137 127 245
shrinkage=0.1


Tree=16
num_leaves=15
num_cat=0
split_feature=7 23 3 21 21 21 13 28 26 22 27 22 13 10
split_gain=33.0193 5.92746 5.28843 3.39203 2.75035 1.87133 2.31155 0.743991 0.184412 0.0959045 0.0216016 0.00623749 0.00370099 0.000676
threshold=0.048290000000000007 722.85000000000002 696.25000000000011 20.810000000000002 25.425000000000004 33.350000000000001 18.555000000000003 0.19935000000000003 0.26000000000000006 111.10000000000001 0.12385 105.85000000000001 32.850000000000009 0.29580000000000006
decision_type=2 2 2 2 2 2 2 2 2 2 2 2 2 2
left_child=2 4 5 -3 -2 7 -7 -1 -5 -10 11 12 -9 -11
right_child=1 3 -4 8 -6 6 -8 10 9 13 -12 -13 -14 -15
leaf_value=0.027110288768000243 0.12894617454788812 0.0065293333267575013 -0.047380371109156841 -0.078052489892587174 -0.053955882027710303 0.11428107230214085 -0.070636973088427243 0.10821687854443776 -0.13462310891528878 -0.11654774986518127 0.12078435847648988 0.11636251473132445 0.11406294562280624 -0.11407052419405711
leaf_count=12 15 15 14 11 10 12 10 221 17 10 14 10 12 129
internal_value=0 -0.811167 0.794173 -1.00107 0.436719 0.952947 0.171817 1.05557 -1.1476 -1.17393 1.10153 1.0911 1.08626 -1.14267
internal_count=512 207 305 182 25 291 22 269 167 156 257 243 233 139
shrinkage=0.1


Tree=17
num_leaves=15
num_cat=0
split_feature=27 13 13 21 15 22 21 1 4 1 27 22 25 7
split_gain=29.1125 6.81588 4.12296 3.19101 2.57396 2.07869 0.784756 1.89754 0.43764 0.041303 0.0171745 0.0107781 0.00258905 0.0013621
threshold=0.14235000000000003 35.185000000000009 22.335000000000004 23.350000000000005 0.015250000000000001 110.25000000000001 31.675000000000004 24.240000000000006 0.089910000000000004 16.395000000000003 0.12700000000000003 107.45000000000002 0.21145000000000003 0.04944500000000001
decision_type=2 2 2 2 2 2 2 2 2 2 2 2 2 2
left_child=1 5 -2 -3 -5 6 10 -8 -4 -10 13 -11 -13 -1
right_child=2 3 8 4 -6 -7 7 -9 9 11 -12 12 -14 -15
leaf_value=0.10760378418701028 0.021513448473018282 0.088438359673224123 -0.052591549834711974 -0.17094028791123586 -0.0069028691938021487 0.0033835831269574713 -0.048018111927657064 0.11236060069540928 -0.1304577793642939 -0.12252753092114377 0.12091841025402782 -0.11752682273419618 -0.11251974177682032 0.11161978892762742
leaf_count=235 17 10 10 11 16 14 10 22 10 10 10 10 117 10
internal_value=0 0.660154 -0.927333 -0.358703 -0.840494 0.896867 1.00189 0.547509 -1.11203 -1.15643 1.08637 -1.1386 -1.12969 1.07826
internal_count=512 338 174 37 27 301 287 32 157 147 255 137 127 245
shrinkage=0.1


Tree=18
num_leaves=15
num_cat=0
split_feature=7 22 21 3 21 22 24 28 6 21 27 1 13 23
split_gain=25.9725 5.14635 4.66773 4.26015 1.76535 2.07063 1.73556 0.767932 0.704948 0.0192539 0.0159476 0.00841829 0.00487617 0.00312001
threshold=0.048290000000000007 115.35000000000001 25.810000000000006 696.25000000000011 33.350000000000001 88.835000000000022 0.14075000000000001 0.19935000000000003 0.10325000000000002 21.830000000000002 0.12385 22.295000000000005 34.730000000000011 796.6500000000002
decision_type=2 2 2 2 2 2 2 2 2 2 2 2 2 2
left_child=3 2 6 4 7 -6 -2 -1 -4 -3 12 -10 13 -9
right_child=1 9 8 -5 5 -7 -8 10 11 -11 -12 -13 -14 -15
leaf_value=0.020551909210198654 0.12954009129613617 -0.12401053604485535 -0.03083377143314733 -0.039451356911081856 0.11246202752921031 -0.070945266554753292 -0.0023797102751627348 0.10665405544748319 -0.12695428261201874 -0.11166087709134061 0.11816429931459574 -0.11520046328566332 0.11419989590553832 0.11287950984873407
leaf_count=12 16 10 10 14 12 10 14 223 10 137 14 10 10 10
internal_value=0 -0.7681 -0.115049 0.758096 0.920339 0.1307 0.639628 1.03229 -0.910794 -1.12892 1.08539 -1.22007 1.07531 1.0704
internal_count=512 207 60 305 291 22 30 269 30 147 257 20 243 233
shrinkage=0.1


Tree=19
num_leaves=15
num_cat=0
split_feature=7 22 21 3 21 1 24 10 14 21 27 7 22 4
split_gain=22.8458 4.76676 4.00729 3.84618 1.67593 1.97617 1.58753 0.830354 0.694173 0.0137041 0.0118927 0.00857719 0.00308666 0.000705431
threshold=0.048290000000000007 115.35000000000001 25.810000000000006 696.25000000000011 33.350000000000001 27.710000000000004 0.14075000000000001 0.50895000000000012 0.0060600000000000003 21.830000000000002 0.12385 0.066120000000000012 105.15000000000002 0.088565000000000019
decision_type=2 2 2 2 2 2 2 2 2 2 2 2 2 2
left_child=3 2 6 4 7 -6 -2 10 -4 -3 12 -10 -1 -11
right_child=1 9 8 -5 5 -7 -8 -9 11 13 -12 -13 -14 -15
leaf_value=0.10626742014241584 0.1265233596122978 -0.12127628039616223 -0.028034627505139426 -0.035846901558346231 -0.070171570649958645 0.11190647584440505 -0.0021409389381656036 0.010328500074178905 -0.12507721369481703 -0.11274999867703434 0.11623556758584633 -0.11267282898341824 0.11245674879148559 -0.1101698413561556
leaf_count=235 16 10 10 14 10 12 14 10 10 12 14 10 10 125
internal_value=0 -0.747427 -0.108829 0.736698 0.902241 0.123877 0.600565 1.01908 -0.870456 -1.11524 1.07566 -1.19934 1.06657 -1.10433
internal_count=512 207 60 305 291 22 30 269 30 147 259 20 245 137
shrinkage=0.1


Tree=20
num_leaves=15
num_cat=0
split_feature=23 21 27 16 12 7 8 21 4 7 27 2 28 7
split_gain=20.2881 6.77753 3.78601 2.93404 2.32562 1.95966 0.639566 0.45128 0.174956 0.111801 0.0520142 0.0112412 0.000437219 0.000486651
threshold=739.85000000000002 20.810000000000002 0.085550000000000015 0.033990000000000013 3.4375000000000004 0.056080000000000012 0.15190000000000003 33.350000000000001 0.088565000000000019 0.052555000000000004 0.13270000000000001 91.405000000000015 0.19935000000000003 0.044455000000000008
decision_type=2 2 2 2 2 2 2 2 2 2 2 2 2 2
left_child=4 3 -3 -2 5 7 -4 10 -8 -10 12 -11 -1 -14
right_child=1 2 6 -5 -6 -7 8 -9 9 11 -12 -13 13 -15
leaf_value=0.10813939599921174 0.13300276456806159 0.072147888584777095 -0.023684888247437707 -0.052705684567813008 -0.052456623490419296 -0.0097376865150199596 -0.083767378634926282 0.051425073391320367 -0.13596936714811214 -0.1196386455333865 0.12784804757302201 -0.10910068408867686 0.10549739594363326 0.10822032139680189
leaf_count=11 17 15 11 10 11 14 19 17 12 10 10 129 215 11
internal_value=0 -0.656177 -0.914382 0.599531 0.798324 0.89754 -1.04787 1.01704 -1.09706 -1.14169 1.07804 -1.10192 1.05826 1.05668
internal_count=512 223 196 27 289 278 181 264 170 151 247 139 237 226
shrinkage=0.1


Tree=21
num_leaves=15
num_cat=0
split_feature=27 13 4 21 22 13 21 22 8 16 26 13 1 7
split_gain=18.1042 6.31439 2.99862 2.31948 1.72836 1.52691 1.27673 1.17344 0.822364 0.953923 0.0605368 0.0423906 0.0174643 0.0118101
threshold=0.15095000000000003 31.285 0.081715000000000024 23.350000000000005 110.25000000000001 22.335000000000004 33.350000000000001 87.080000000000013 0.16615000000000002 0.023425000000000005 0.34025000000000005 29.180000000000003 16.600000000000005 0.045625000000000006
decision_type=2 2 2 2 2 2 2 2 2 2 2 2 2 2
left_child=1 4 -3 -4 6 -2 10 -8 -5 -10 11 13 -7 -1
right_child=5 2 3 8 -6 12 7 -9 9 -11 -12 -13 -14 -15
leaf_value=0.10517149067449437 -0.0034834537562757374 0.11366608944128537 0.046454397692440343 -0.16044550617481859 0.0054054673350145367 -0.12073157306001825 0.11104484278642911 -0.044153357077340666 0.020312911680375183 -0.11833675796352017 0.12693257845852257 0.080067929131329776 -0.10869042904502774 0.11608794304451563
leaf_count=218 12 11 13 12 16 11 10 10 10 13 18 12 133 13
internal_value=0 0.522738 -0.344382 -0.670906 0.830012 -0.970167 0.957305 0.212891 -1.07298 -0.660576 1.0714 1.04793 -1.10225 1.06265
internal_count=512 356 59 48 297 156 281 20 35 23 261 243 144 231
shrinkage=0.1


Tree=22
num_leaves=15
num_cat=0
split_feature=23 27 13 19 21 21 29 21 5 27 22 7 1 2
split_gain=16.0269 5.951 3.52595 2.23788 1.81793 1.85521 1.75311 1.36082 0.404185 0.248913 0.0565191 0.0424027 0.00611878 0.0037459
threshold=963.25000000000011 0.16030000000000003 31.285 0.0028900000000000006 33.350000000000001 35.690000000000005 0.064535000000000023 27.610000000000003 0.15835000000000002 0.13765000000000002 109.65000000000002 0.052865000000000002 17.035000000000004 96.305000000000021
decision_type=2 2 2 2 2 2 2 2 2 2 2 2 2 2
left_child=1 2 4 -4 9 -6 -2 -5 -3 10 -1 -8 -13 -10
right_child=6 8 3 7 5 -7 11 -9 13 -11 -12 12 -14 -15
leaf_value=0.10488852677759933 0.022946793166139342 -0.037496233385407557 -0.11716909449599891 0.11389387790571276 -0.076462270178933922 0.11100317285302486 -0.12740619137712228 -0.046291402510997975 -0.11761170308362477 0.069264804634327243 0.12657919107687429 -0.11583855672508846 -0.10761410095608495 -0.10817228587983585
leaf_count=251 10 11 12 14 10 11 10 11 10 16 10 10 116 10
internal_value=0 0.491117 0.687773 -0.207622 0.887115 0.0331121 -0.980718 0.437702 -0.844088 1.01887 1.07338 -1.11261 -1.08609 -1.14021
internal_count=512 366 335 37 298 21 146 25 31 277 261 136 126 20
shrinkage=0.1


Tree=23
num_leaves=15
num_cat=0
split_feature=7 23 1 20 21 4 15 14 11 29 26 18 7 7
split_gain=14.4769 3.60748 2.6408 3.31852 2.28734 1.7148 1.59224 1.00603 1.12832 0.19193 0.169409 0.113264 0.0484587 0.030464
threshold=0.048290000000000007 722.85000000000002 21.975000000000005 14.485000000000001 20.810000000000002 0.10830000000000002 0.016655000000000007 0.0033440000000000002 2.0845000000000007 0.06167000000000001 0.26000000000000006 0.011965000000000002 0.055970000000000013 0.042890000000000005
decision_type=2 2 2 2 2 2 2 2 2 2 2 2 2 2
left_child=2 5 7 -4 -3 -2 -5 -1 9 -9 -6 -11 -12 -13
right_child=1 4 3 6 10 -7 -8 8 -10 11 12 13 -14 -15
leaf_value=-0.014848963876482105 0.1311283312782284 0.012825596575610871 0.10824901535502843 -0.11668428585835895 -0.063302070434783961 -0.038380993874979716 0.056816676327780036 0.15466546777161175 -0.02295131049601383 0.056545134183794032 -0.12904315104945141 0.10531095065792831 -0.1077747367728164 0.1250803507695121
leaf_count=11 12 15 30 14 11 13 10 11 12 10 10 197 146 10
internal_value=0 -0.685541 0.673961 0.0147226 -0.894482 0.443371 -0.690314 0.923459 1.00403 1.08847 -1.06778 1.04716 -1.10309 1.07244
internal_count=512 207 305 54 182 25 24 251 240 228 167 217 156 207
shrinkage=0.1


Tree=24
num_leaves=15
num_cat=0
split_feature=23 27 13 18 21 6 9 22 24 27 22 6 21 12
split_gain=12.9203 4.73582 2.93487 1.88148 1.62813 1.67756 1.55727 1.0198 0.382994 0.285732 0.0327206 0.0271362 0.00715638 0.00211561
threshold=963.25000000000011 0.16030000000000003 31.285 0.019955000000000004 33.350000000000001 0.040305000000000007 0.053005000000000004 105.95000000000002 0.15490000000000001 0.13765000000000002 109.65000000000002 0.08018500000000002 21.830000000000002 2.4185000000000003
decision_type=2 2 2 2 2 2 2 2 2 2 2 2 2 2
left_child=1 2 4 -4 9 -6 -2 -5 -3 10 -1 -8 -13 -10
right_child=6 8 3 7 5 -7 11 -9 13 -11 -12 12 -14 -15
leaf_value=0.10411989547590675 0.020240906828426802 -0.032569638646825293 -0.11972126181153703 0.10912547854227923 0.11007935032191254 -0.07525097037129537 -0.12340602322954336 -0.029571003310132012 -0.114591068809878 0.063560699911139037 0.12171835818288138 -0.11523585109483044 -0.10606457547883413 -0.10690530524831206
leaf_count=251 10 11 11 16 11 10 10 10 10 16 10 10 116 10
internal_value=0 0.46824 0.655798 -0.190532 0.856214 0.0227013 -0.953921 0.373625 -0.8035 0.995838 1.06203 -1.09691 -1.0733 -1.11762
internal_count=512 366 335 37 298 21 146 26 31 277 261 136 126 20
shrinkage=0.1


Tree=25
num_leaves=15
num_cat=0
split_feature=22 26 21 28 4 22 24 29 28 28 27 29 1 7
split_gain=11.5373 4.02809 4.44733 2.05598 1.41324 1.19302 0.639065 0.522707 0.339745 0.202088 0.143516 0.113874 0.0995344 0.0302237
threshold=121.30000000000003 0.21370000000000003 27.610000000000003 0.19935000000000003 0.10885000000000002 91.540000000000006 0.13660000000000003 0.10250000000000002 0.23280000000000003 0.32305000000000006 0.15505000000000002 0.06167000000000001 19.125000000000004 0.044455000000000008
decision_type=2 2 2 2 2 2 2 2 2 2 2 2 2 2
left_child=1 3 4 -1 7 -4 -7 12 -2 11 -8 -5 13 -3
right_child=8 2 5 9 -6 6 10 -9 -10 -11 -12 -13 -14 -15
leaf_value=-0.048798953972879554 -0.03612427260055999 0.10736268684996582 0.044034703333769402 0.15288614183965474 -0.032468652427267659 -0.046577271175498119 -0.1591761541097329 0.032077927503177311 -0.10751600435681091 0.053744154107336843 -0.10906511985545142 0.10565786316368322 0.069754498733705025 0.12987068345656208
leaf_count=13 10 27 13 10 15 15 10 15 131 18 19 196 10 10
internal_value=0 0.425524 -0.0247246 0.886874 0.580862 -0.773033 -0.997017 0.868579 -1.00866 1.04301 -1.32165 1.08948 1.10038 1.18581
internal_count=512 371 134 237 77 57 44 62 141 224 29 206 47 37
shrinkage=0.1


Tree=26
num_leaves=15
num_cat=0
split_feature=7 23 21 1 15 7 15 21 14 24 0 4 21 7
split_gain=10.2831 3.08375 2.94602 2.03433 3.12855 3.85429 0.972443 0.557743 0.377641 0.276752 0.171689 0.0675312 0.039114 0.0318445
threshold=0.048290000000000007 811.85000000000002 26.010000000000002 18.065000000000001 0.016305000000000004 0.023000000000000003 0.012395000000000002 20.810000000000002 0.0064230000000000008 0.15215000000000004 12.640000000000002 0.079520000000000021 23.010000000000002 0.041415000000000007
decision_type=2 2 2 2 2 2 2 2 2 2 2 2 2 2
left_child=3 2 10 13 5 -5 -7 -3 -4 11 -2 -6 -9 -1
right_child=1 7 8 4 9 6 -8 12 -10 -11 -12 -13 -14 -15
leaf_value=0.10400047803660067 0.057750109825954479 -0.032437935655798326 -0.028021440475918258 0.10475391349896113 0.14556429450680156 -0.1479576468489128 -0.02547753768865274 -0.12872077894138778 -0.11384082641210812 0.026125736672411588 0.12099332108460877 0.10637300780323403 -0.10548017172543483 0.12383064164427998
leaf_count=156 10 10 10 40 10 12 13 10 14 10 13 52 140 12
internal_value=0 -0.640269 0.0892043 0.630626 0.278497 -0.296018 -0.993398 -0.980259 -0.738183 1.02778 0.989994 1.14225 -1.08053 1.07342
internal_count=512 207 47 305 137 65 25 160 24 72 23 62 150 168
shrinkage=0.1


Tree=27
num_leaves=15
num_cat=0
split_feature=27 13 4 1 26 16 21 13 19 27 1 7 1 0
split_gain=9.23976 3.3535 1.78775 1.50448 1.44664 2.63304 1.20342 1.15812 0.683598 0.793577 0.2841 0.0204716 0.00576002 0.00499043
threshold=0.15095000000000003 31.285 0.081715000000000024 17.035000000000004 0.21370000000000003 0.026245000000000001 25.425000000000004 22.335000000000004 0.0028900000000000006 0.11065000000000001 21.690000000000001 0.04944500000000001 16.600000000000005 14.595000000000001
decision_type=2 2 2 2 2 2 2 2 2 2 2 2 2 2
left_child=1 4 -3 -4 13 6 -6 -2 -5 -10 11 -7 -9 -1
right_child=7 2 3 8 5 10 -8 12 9 -11 -12 -13 -14 -15
leaf_value=0.10354866534031909 0.0025715882623619382 0.099217289432129319 0.074231990377809046 -0.13102747969572523 0.040797969039529688 0.10383220685827493 -0.11553390805148048 -0.1132626181001954 0.044552561897793358 -0.11038823374664647 0.044438478609160552 0.12360725744437784 -0.10485516648969764 0.11284644567795817
leaf_count=204 12 11 10 17 12 37 10 11 10 11 14 10 133 10
internal_value=0 0.441187 -0.279346 -0.584637 0.731241 0.327902 -0.538699 -0.896121 -0.88993 -0.351274 0.935159 1.13193 -1.06099 1.04475
internal_count=512 356 59 48 297 83 22 156 38 21 61 47 144 214
shrinkage=0.1


Tree=28
num_leaves=15
num_cat=0
split_feature=27 3 23 1 21 13 21 15 7 22 22 7 13 28
split_gain=8.31077 2.59374 2.43247 1.89063 1.2759 0.776949 0.758759 0.745055 0.0301909 0.00359183 0.00124758 0.000405378 0.000273322 0.000157498
threshold=0.1358 696.25000000000011 722.85000000000002 19.995000000000005 20.810000000000002 36.925000000000004 33.350000000000001 0.012395000000000002 0.054180000000000006 108.7 103.80000000000003 0.050880000000000009 28.845000000000002 0.19935000000000003
decision_type=2 2 2 2 2 2 2 2 2 2 2 2 2 2
left_child=1 5 -2 -3 -4 6 10 -8 -6 -10 11 13 -11 -1
right_child=2 3 4 -5 8 -7 7 -9 9 12 -12 -13 -14 -15
leaf_value=0.10452681367576602 0.03962020562795264 0.054471435203548114 -0.00029858414881063267 -0.11845997173966544 -0.12444159963211195 0.00066113943551451837 -0.037903577337610329 0.10788336739554705 -0.11169182702077163 -0.10642097561975782 0.10710078587978994 0.10574686821949081 -0.10401161871314753 0.10257051120447028
leaf_count=11 18 10 13 14 10 13 10 10 10 10 16 11 126 230
internal_value=0 0.562538 -0.673018 -0.338702 -0.904125 0.798829 0.900461 0.237488 -1.07905 -1.05211 1.03428 1.02951 -1.0426 1.0272
internal_count=512 325 187 24 169 301 288 20 156 146 268 252 136 241
shrinkage=0.1


Tree=29
num_leaves=15
num_cat=0
split_feature=22 7 5 26 23 4 4 0 28 18 16 27 6 27
split_gain=7.5181 2.89958 3.04725 3.35357 1.7562 1.70458 0.989789 0.452805 0.307197 0.0561762 0.0316596 0.0096225 0.00787934 0.00261798
threshold=121.30000000000003 0.026785000000000007 0.059625000000000004 0.26730000000000004 722.85000000000002 0.10830000000000002 0.09056500000000002 14.405000000000003 0.23280000000000003 0.015210000000000001 0.047805000000000007 0.13405000000000003 0.11075 0.14620000000000002
decision_type=2 2 2 2 2 2 2 2 2 2 2 2 2 2
left_child=1 -1 -3 9 5 11 -6 12 -2 -4 -11 -5 -8 -10
right_child=8 2 3 4 6 -7 7 -9 13 10 -12 -13 -14 -15
leaf_value=0.10332367378208301 -0.028976866179652724 -0.14448554340564204 0.13291474063018419 0.104008475251574 0.055322658144321836 -0.06561212872140916 -0.12210616839984344 -0.037350418068238044 -0.11016346638448844 0.10634812753584533 0.074730973002154033 0.12151040087777124 -0.10857460973728313 -0.1043664098380262
leaf_count=189 10 10 11 17 10 10 10 18 14 62 10 10 14 117
internal_value=0 0.380384 0.0836568 0.277385 -0.175443 0.516014 -0.608833 -0.845268 -0.975126 1.08826 1.017 1.16007 -1.16591 -1.05473
internal_count=512 371 182 172 89 37 52 42 141 83 72 27 24 131
shrinkage=0.1


end of trees

feature importances:
Column_21=70
Column_27=45
Column_22=41
Column_7=40
Column_13=29
Column_1=19
Column_4=18
Column_23=18
Column_28=14
Column_6=12
Column_24=11
Column_3=9
Column_16=8
Column_12=7
Column_9=7
Column_15=7
Column_26=7
Column_29=6
Column_19=5
Column_5=5
Column_11=5
Column_0=5
Column_14=4
Column_10=4
Column_8=4
Column_20=4
Column_18=3
Column_25=3
Column_2=2

parameters:
[boosting: gbdt]
[objective: binary]
[metric: auc]
[tree_learner: serial]
[device_type: cpu]
[data: ]
[valid: ]
[num_iterations: 100]
[learning_rate: 0.1]
[num_leaves: 15]
[num_threads: 1]
[max_depth: -1]
[min_data_in_leaf: 10]
[min_sum_hessian_in_leaf: 0.001]
[bagging_fraction: 1]
[bagging_freq: 0]
[bagging_seed: 3]
[feature_fraction: 1]
[feature_fraction_seed: 2]
[early_stopping_round: 0]
[max_delta_step: 0]
[lambda_l1: 0]
[lambda_l2: 0]
[min_gain_to_split: 0]
[drop_rate: 0.1]
[max_drop: 50]
[skip_drop: 0.5]
[xgboost_dart_mode: 0]
[uniform_drop: 0]
[drop_seed: 4]
[top_rate: 0.2]
[other_rate: 0.1]
[min_data_per_group: 100]
[max_cat_threshold: 32]
[cat_l2: 10]
[cat_smooth: 10]
[max_cat_to_onehot: 4]
[top_k: 20]
[monotone_constraints: ]
[feature_contri: ]
[forcedsplits_filename: ]
[refit_decay_rate: 0.9]
[verbosity: -1]
[max_bin: 255]
[min_data_in_bin: 3]
[bin_construct_sample_cnt: 200000]
[histogram_pool_size: -1]
[data_random_seed: 1]
[output_model: LightGBM_model.txt]
[snapshot_freq: -1]
[input_model: ]
[output_result: LightGBM_predict_result.txt]
[initscore_filename: ]
[valid_data_initscores: ]
[pre_partition: 0]
[enable_bundle: 1]
[max_conflict_rate: 0]
[is_enable_sparse: 1]
[sparse_threshold: 0.8]
[use_missing: 1]
[zero_as_missing: 0]
[two_round: 0]
[save_binary: 0]
[enable_load_from_binary_file: 1]
[header: 0]
[label_column: ]
[weight_column: ]
[group_column: ]
[ignore_column: ]
[categorical_feature: ]
[predict_raw_score: 0]
[predict_leaf_index: 0]
[predict_contrib: 0]
[num_iteration_predict: -1]
[pred_early_stop: 0]
[pred_early_stop_freq: 10]
[pred_early_stop_margin: 10]
[convert_model_language: ]
[convert_model: gbdt_prediction.cpp]
[num_class: 1]
[is_unbalance: 0]
[scale_pos_weight: 1]
[sigmoid: 1]
[boost_from_average: 1]
[reg_sqrt: 0]
[alpha: 0.9]
[fair_c: 1]
[poisson_max_delta_step: 0.7]
[tweedie_variance_power: 1.5]
[max_position: 20]
[label_gain: ]
[metric_freq: 1]
[is_provide_training_metric: 0]
[eval_at: ]
[num_machines: 1]
[local_listen_port: 12400]
[time_out: 120]
[machine_list_filename: ]
[machines: ]
[gpu_platform_id: -1]
[gpu_device_id: -1]
[gpu_use_dp: 0]

end of parameters

pandas_categorical:null
