tree
version=v2
num_class=1
num_tree_per_iteration=1
label_index=0
max_feature_idx=27
objective=binary sigmoid:1
feature_names=feature_0 feature_1 feature_2 feature_3 feature_4 feature_5 feature_6 feature_7 feature_8 feature_9 feature_10 feature_11 feature_12 feature_13 feature_14 feature_15 feature_16 feature_17 feature_18 feature_19 feature_20 feature_21 feature_22 feature_23 feature_24 feature_25 feature_26 feature_27
feature_infos=[0.27500000000000002:6.6950000000000003] [-2.4169999999999998:2.4300000000000002] [-1.7430000000000001:1.7430000000000001] [0.019:5.7000000000000002] [-1.7430000000000001:1.7430000000000001] [0.159:4.1900000000000004] [-2.9410000000000003:2.9700000000000002] [-1.7409999999999999:1.7409999999999999] [0:2.173] [0.19:5.1929999999999996] [-2.9039999999999999:2.9089999999999998] [-1.742:1.7430000000000001] [0:2.2149999999999999] [0.26400000000000001:6.5229999999999997] [-2.7280000000000002:2.7269999999999999] [-1.742:1.742] [0:2.548] [0.36499999999999999:6.0679999999999996] [-2.4950000000000001:2.496] [-1.74:1.7430000000000001] [0:3.1019999999999999] 1:0:2:3:4:5:6:7 [0.41899999999999998:7.3920000000000003] [0.46100000000000002:3.6819999999999999] [0.38400000000000001:6.5829999999999993] [0.093000000000000013:7.8600000000000003] [0.38900000000000001:4.5430000000000001] [0.48899999999999999:4.3159999999999998]
tree_sizes=2473 2514 2494 2493 2501 2521 2510 2503 2510 2516

Tree=0
num_leaves=31
num_cat=0
split_feature=25 26 27 25 25 24 22 5 5 27 26 27 25 26 27 24 3 25 13 3 22 19 5 24 4 4 25 24 13 24
split_gain=258.038 165.11 154.742 63.219 70.8123 52.7563 84.2546 36.0199 33.6019 27.9057 27.8139 26.5869 26.0761 22.1221 21.9403 33.7759 17.9554 17.3962 16.275 15.194 14.467 15.3902 14.2355 13.4469 12.7354 13.7208 12.6664 12.7077 12.328 14.4412
threshold=1.2815000000000001 0.78050000000000008 0.90450000000000019 0.98450000000000015 0.6785000000000001 1.0265000000000002 1.0445000000000002 0.82550000000000001 1.0195000000000003 0.9225000000000001 0.86950000000000016 0.78850000000000009 0.62350000000000005 0.88850000000000018 0.88950000000000007 1.1225000000000003 1.9205000000000003 0.98950000000000016 1.3835000000000004 1.8335000000000004 0.94750000000000012 -0.96449999999999991 1.3365000000000002 0.71850000000000014 1.2535000000000001 -0.27149999999999996 0.58650000000000013 0.74550000000000016 0.96150000000000013 0.75150000000000006
decision_type=2 2 2 2 2 2 2 2 2 2 2 2 2 2 2 2 2 2 2 2 2 2 2 2 2 2 2 2 2 2
left_child=1 7 3 4 28 6 -4 23 13 22 11 -6 -7 -5 20 -16 17 -14 -19 -17 -2 -22 26 -1 25 -8 27 -9 29 -3
right_child=14 2 5 8 10 12 24 9 -10 -11 -12 -13 16 -15 15 19 -18 18 -20 -21 21 -23 -24 -25 -26 -27 -28 -29 -30 -31
leaf_value=0.10284758317169626 0.081717548115204597 0.16920083703122518 0.061477323984852811 0.079260885438702716 0.18080904101407977 0.099309317207388309 0.12110846920445478 0.12408276028202063 0.17475193328198171 0.017008281489650057 0.1969212081555923 0.1235008337668447 0.16066263555873586 0.13517987794167297 0.05173771107426077 0.10127986202068245 0.10275151646010305 0.11491813432626971 0.17550668759677757 0.045185775908694936 0.063338584813271967 0.15085137998011328 0.17902887439915816 0.074439733286902621 0.085450775035909657 0.16644963581922742 0.14411108005613313 0.055249166772639538 0.16659762686134424 0.11481669961729626
leaf_count=283 121 62 307 129 277 161 135 75 112 22 751 115 457 158 422 324 96 203 57 57 26 90 57 409 44 133 139 42 102 234
internal_value=0 0.217752 0.42333 0.803342 0.987405 -0.0394609 -0.496888 -0.48946 0.0924624 0.0498958 1.24088 0.808221 0.251245 -0.270801 -0.88835 -1.04647 0.397149 0.506114 0.0923076 -0.613956 -0.35262 0.153016 0.203224 -0.750565 0.236446 0.400485 0.00157742 -0.484247 0.259469 0.0524468
internal_count=5600 4560 3533 1940 1541 1593 619 1027 399 335 1143 392 974 287 1040 803 813 717 260 381 237 116 313 692 312 268 256 117 398 296
shrinkage=1


Tree=1
num_leaves=31
num_cat=0
split_feature=25 26 25 25 3 5 22 5 26 22 22 26 22 3 26 24 9 25 3 5 24 26 19 13 9 19 24 5 23 3
split_gain=232.567 149.461 79.7137 118.312 38.3157 33.9073 19.959 19.4367 21.805 18.5965 19.0683 17.7145 20.2141 15.8739 14.2707 13.2396 12.7568 12.7083 12.4665 12.2694 11.595 11.5527 11.8451 11.5454 11.2504 10.1043 9.87802 9.37985 9.34468 10.6218
threshold=1.2815000000000001 0.77650000000000008 0.62350000000000005 0.98950000000000016 1.6175000000000004 0.82550000000000001 1.0445000000000002 0.88150000000000006 1.0375000000000003 1.0025000000000002 0.84950000000000014 0.97650000000000003 0.78450000000000009 0.97650000000000003 0.94950000000000012 0.71850000000000014 0.89250000000000018 2.0390000000000006 1.1435000000000002 1.5755000000000001 1.7450000000000003 1.1205000000000003 0.62900000000000011 0.73250000000000004 0.81850000000000012 1.0425000000000002 1.1005000000000003 0.98050000000000004 0.98050000000000004 0.33650000000000008
decision_type=2 2 2 2 2 2 2 2 2 2 2 2 2 2 2 2 2 2 2 2 2 2 2 2 2 2 2 2 2 2
left_child=1 5 19 4 7 15 11 18 -9 10 -5 24 -13 -7 27 25 -15 -8 -4 -3 23 -16 -23 -6 -2 28 -14 -11 -1 -30
right_child=6 2 3 9 20 13 17 8 -10 14 -12 12 26 16 21 -17 -18 -19 -20 -21 -22 22 -24 -25 -26 -27 -28 -29 29 -31
leaf_value=-0.070541453406693988 -0.063694696339596971 -0.018268219940631856 0.040536711276372622 0.0050468732160738579 0.041073763562594706 0.020651352864842279 -0.011240886118261467 0.065302003278970011 0.032851254148682729 -0.048367080735581769 -0.034450629006536941 -0.0053636137701500485 -0.077843794406284653 -0.049414992210901412 0.046233340678247803 -0.048147811369761845 0.016529617086431816 -0.054394845292876338 0.012504728853908589 0.032712218632545885 -0.056054581121086335 -0.014206068541919782 0.048014347247125215 -0.0035552662953019934 0.00058016734174086166 -0.05701248666597733 -0.049041183946400627 0.032225489254395945 0.056549891419987078 -0.012066252716263076
leaf_count=23 39 534 688 216 89 198 258 636 310 53 284 61 300 79 123 399 47 93 208 52 28 102 44 169 91 58 198 20 26 174
internal_value=0 0.207189 0.400353 0.5339 0.786129 -0.474962 -0.842165 0.892352 1.09303 -0.101684 -0.347898 -1.04008 -1.19477 0.0589292 0.258551 -0.728684 -0.497018 -0.453583 0.680513 -0.274894 0.103404 0.471952 0.0907344 0.236521 -0.374138 -0.395616 -1.32798 -0.527041 -0.201945 -0.0629231
internal_count=5600 4560 3556 2970 2128 1004 1040 1842 946 842 500 689 559 324 342 680 126 351 896 586 286 269 146 258 130 281 498 73 223 200
shrinkage=0.05


Tree=2
num_leaves=31
num_cat=0
split_feature=27 26 24 22 5 3 5 22 27 26 26 22 22 22 24 26 26 27 5 18 18 27 24 22 1 24 4 26 13 19
split_gain=148.117 184.435 89.3492 94.5529 40.4413 27.3787 27.2311 19.0733 22.2821 18.7714 16.1379 13.5399 13.5162 18.567 13.3548 13.0963 13.0848 12.6295 12.4813 11.7266 11.1861 10.885 10.6951 12.1689 10.6911 10.6851 10.5366 15.4816 10.235 10.0934
threshold=0.90250000000000019 0.81150000000000011 1.0265000000000002 1.0445000000000002 0.82050000000000012 1.9205000000000003 0.89650000000000007 1.0355000000000001 0.83850000000000013 1.3665 1.2195000000000003 1.5530000000000002 1.0465000000000002 0.74450000000000016 0.78250000000000008 0.89850000000000019 0.77250000000000008 1.0885000000000002 1.3665 -0.80349999999999988 0.037500000000000012 0.73350000000000015 0.73550000000000015 0.8015000000000001 -0.50249999999999984 0.71850000000000014 -1.2844999999999998 0.86050000000000015 0.78050000000000008 0.8035000000000001
decision_type=2 2 2 2 2 2 2 2 2 2 2 2 2 2 2 2 2 2 2 2 2 2 2 2 2 2 2 2 2 2
left_child=1 4 3 17 16 12 7 8 26 14 24 -11 13 -4 28 -10 25 22 -6 -13 21 -18 -2 -24 -7 29 27 -3 -5 -1
right_child=2 6 5 9 18 10 -8 -9 15 11 -12 19 -14 -15 -16 -17 20 -19 -20 -21 -22 -23 23 -25 -26 -27 -28 -29 -30 -31
leaf_value=-0.0073029196712544242 -0.016483738266246096 -0.056226662966493993 0.037243245973663699 -0.010522150734305409 0.0026461442993008974 0.042245029951626607 0.046440568748069885 0.04858761207873491 -0.04773094810436717 -0.084102271262559564 -0.065655930649870728 -0.063081051195993595 0.015762579862828231 -0.011458033620908884 -0.0058759188038779945 0.0046124893907736877 0.0083286333310169571 -0.086782249315688301 0.050838468825565433 0.0097202305841271319 0.025447545611885669 -0.058886351658876616 -0.020895762195453083 -0.072301035629168051 -0.033948366204301507 -0.046187366594338752 0.031795753626302992 0.0324895757065886 0.060645280643654702 -0.049344488016781651
leaf_count=189 58 36 90 29 327 30 934 224 68 41 98 34 526 630 203 164 47 207 65 64 74 50 56 261 48 370 483 44 68 82
internal_value=0 0.298664 -0.358922 -0.810713 -0.317348 -0.0338865 0.680672 0.453822 0.308105 -0.107649 -0.772754 -0.71612 0.070829 -0.107589 0.174807 -0.215088 -0.571915 -1.33898 0.212204 -0.311304 -0.0786672 -0.526581 -1.11994 -1.26446 -0.0928599 -0.702852 0.524037 -0.150543 0.787251 -0.400718
internal_count=5600 3157 2443 1021 1204 1422 1953 1019 795 439 176 139 1246 720 300 232 812 582 392 98 171 97 375 317 78 641 563 80 97 271
shrinkage=0.05


Tree=3
num_leaves=31
num_cat=0
split_feature=25 26 27 25 25 25 26 24 22 27 5 27 22 27 3 5 25 3 5 22 17 6 5 4 25 13 24 27 24 3
split_gain=205.442 146.989 120.56 48.7787 42.9311 39.2895 31.1871 29.0385 55.8713 27.4702 25.904 24.2132 24.1528 24.5602 22.82 21.5809 17.496 15.6602 14.9168 14.0717 13.142 12.1895 11.6379 11.5599 13.7375 10.9054 12.5602 10.4004 10.2465 10.172
threshold=1.0565000000000002 0.78050000000000008 0.90450000000000019 0.6785000000000001 1.4915 0.62350000000000005 0.86950000000000016 1.0065000000000002 0.99950000000000017 0.78250000000000008 0.82550000000000001 0.75650000000000006 1.0025000000000002 1.0445000000000002 1.6740000000000002 0.91550000000000009 0.94850000000000012 1.8335000000000004 1.2445000000000002 0.73650000000000004 2.1615000000000006 -1.2374999999999998 1.5755000000000001 -0.039499999999999993 0.81350000000000011 0.96150000000000013 0.75150000000000006 0.9225000000000001 1.2035000000000002 0.45550000000000007
decision_type=2 2 2 2 2 2 2 2 2 2 2 2 2 2 2 2 2 2 2 2 2 2 2 2 2 2 2 2 2 2
left_child=1 10 3 25 12 22 9 8 -7 16 29 21 13 15 18 -2 -5 20 -9 -17 -6 -12 -4 24 -11 26 -3 -13 -21 -1
right_child=4 2 5 6 17 7 -8 14 -10 23 11 27 -14 -15 -16 19 -18 -19 -20 28 -22 -23 -24 -25 -26 -27 -28 -29 -30 -31
leaf_value=-0.0082033028811009587 -0.03599909263529838 0.041746635640685148 -0.039580301392174347 0.058125446833881649 -0.047005132938931764 -0.057212826088312366 0.062685920491323349 0.023242950454383147 0.021379314442893989 0.03458350647962026 -0.0472128223059173 -0.020425259197421095 0.0050919136779366547 -0.064092400066437114 -0.013299083017745733 0.071779011675729365 -0.011395179058987818 -0.096962996070842092 0.062990739000158127 -0.017861215058779942 0.015256644821202901 0.029991875111881828 0.019987201999956301 0.02216413692018528 -0.061614855385568858 0.039569321922273241 -0.0091237530592508161 -0.097929980712076425 0.037995357051269753 -0.038162993370534026
leaf_count=145 247 62 248 246 599 156 854 358 217 21 23 82 361 142 131 30 43 60 130 123 36 196 38 75 52 102 234 22 45 522
internal_value=0 0.259168 0.483726 0.837842 -0.58416 0.0197737 1.02885 0.209041 -0.232428 0.591867 -0.408289 0.0584268 -0.30659 -0.557134 0.476091 -0.325475 0.954461 -0.961879 0.676464 0.167993 -0.869502 0.43756 -0.633747 -0.1107 -0.679159 0.224196 0.0295668 -0.737286 -0.0574093 -0.633103
internal_count=5600 3957 2967 1689 1643 1278 1291 992 373 437 990 323 948 587 619 445 289 695 488 198 635 219 286 148 73 398 296 104 168 667
shrinkage=0.05


Tree=4
num_leaves=31
num_cat=0
split_feature=25 26 27 25 25 25 26 24 22 27 5 27 22 27 3 5 25 3 5 22 24 17 0 25 6 5 11 5 14 26
split_gain=185.695 133.172 109.85 44.7552 38.7872 35.4665 28.7556 26.2881 48.8607 25.0437 23.3658 21.8754 21.7989 22.1947 19.956 19.4566 16.0033 14.3464 12.8726 12.8084 12.7319 16.2341 14.2999 12.7886 11.0086 10.8517 10.7611 10.4892 10.4273 10.1204
threshold=1.0565000000000002 0.78050000000000008 0.90450000000000019 0.6785000000000001 1.4915 0.62350000000000005 0.86950000000000016 1.0185000000000002 0.99950000000000017 0.78250000000000008 0.82550000000000001 0.75650000000000006 1.0025000000000002 1.0445000000000002 1.6740000000000002 0.91550000000000009 0.94850000000000012 1.8335000000000004 1.2445000000000002 0.73650000000000004 1.3545000000000003 1.5825000000000002 1.1075000000000002 2.0390000000000006 -1.2374999999999998 1.2105000000000001 -0.39449999999999991 1.5755000000000001 0.88850000000000018 0.84050000000000014
decision_type=2 2 2 2 2 2 2 2 2 2 2 2 2 2 2 2 2 2 2 2 2 2 2 2 2 2 2 2 2 2
left_child=1 10 3 -3 12 27 9 8 -7 16 -1 24 13 15 18 -2 -5 20 -9 -17 22 -22 23 25 -12 -6 -16 -4 -11 -14
right_child=4 2 5 6 17 7 -8 14 -10 28 11 -13 29 -15 26 19 -18 -19 -20 -21 21 -23 -24 -25 -26 -27 -28 -29 -30 -31
leaf_value=-0.03007466406260563 -0.034171014563527391 0.010667027800453588 -0.037567210194892987 0.055687579969788049 -0.041920232142950868 -0.053424147836170721 0.060126088198485833 0.02248874373378508 0.019554118609331331 -0.020358898894108236 -0.044708771572039417 -0.035026924163452405 -0.064419733632072249 -0.06092732837760189 0.023364535810334042 0.068723767475656228 -0.010814481443820212 -0.092627105268016957 0.059791420812017451 -0.0027257930963349077 -0.03310238735004007 0.047694654553158029 -0.077769747350913215 -0.072840744508540084 0.028568707780727565 0.00059459190294235478 -0.035450464047234551 0.019014778632459699 0.041777501926684335 0.0089110851022509169
leaf_count=667 247 398 248 246 190 157 854 354 223 112 23 104 20 142 52 30 43 60 128 168 112 32 128 85 196 88 78 38 36 341
internal_value=0 0.247111 0.461601 0.801135 -0.555152 0.0188508 0.98524 0.199058 -0.214866 0.565015 -0.388064 0.0556022 -0.291313 -0.529343 0.457455 -0.309174 0.913171 -0.914301 0.64701 0.15981 -0.826095 -0.303144 -0.979741 -0.776913 0.41656 -0.569222 -0.23828 -0.601691 -0.105129 0.0967787
internal_count=5600 3957 2967 1689 1643 1278 1291 992 380 437 990 323 948 587 612 445 289 695 482 198 635 144 491 363 219 278 130 286 148 361
shrinkage=0.05


Tree=5
num_leaves=31
num_cat=0
split_feature=25 25 26 26 25 22 9 5 5 25 9 0 24 0 22 22 4 10 23 24 14 3 24 25 10 24 26 15 15 1
split_gain=190.967 123.643 75.9346 34.8826 32.1702 30.5379 28.9557 28.4996 20.4006 23.2065 16.3872 14.5294 12.6395 12.3923 12.0457 15.7034 11.4611 12.1532 11.4754 10.8305 10.4034 10.2247 9.77361 9.75748 12.5245 9.34506 9.1128 8.67953 8.61195 8.55797
threshold=1.0675000000000001 0.66550000000000009 0.77650000000000008 1.0825000000000002 1.5695000000000003 1.0265000000000002 1.1375000000000002 0.85250000000000015 0.88150000000000006 0.96550000000000014 1.6925000000000001 2.2790000000000004 0.97750000000000015 2.4065000000000007 0.81050000000000011 1.0885000000000002 -0.26349999999999996 -0.60149999999999981 1.1125000000000003 0.6705000000000001 1.2275000000000003 1.8335000000000004 2.1485000000000007 0.96950000000000014 -0.39949999999999991 0.74850000000000017 0.98850000000000016 0.24750000000000003 1.0415000000000003 1.1045000000000003
decision_type=2 2 2 2 2 2 2 2 2 2 2 2 2 2 2 2 2 2 2 2 2 2 2 2 2 2 2 2 2 2
left_child=1 6 7 8 5 12 14 20 9 29 13 -10 19 23 -1 16 17 -16 -18 -2 -3 22 26 -5 -25 -17 -6 -9 -7 -4
right_child=4 2 3 10 21 28 -8 27 11 -11 -12 -13 -14 -15 15 25 18 -19 -20 -21 -22 -23 -24 24 -26 -27 -28 -29 -30 -31
leaf_value=-0.0030615752742305952 0.0034703107205822795 -0.043631014576037838 0.039189339840581178 0.014774265448395028 -0.0018557887687825536 0.012316974642225694 0.017687564096601518 0.050194629936530677 0.052134220065784366 -0.010866723863100608 0.053746456132888858 -0.0095913829579568795 -0.017332207422173129 -0.066294385968032582 -0.053649680045280951 0.032692040483127113 -0.053259950735346007 -0.0076413436957386881 -9.6079161295919247e-05 -0.050577461676237591 0.01644601971111637 -0.088988727124621914 0.013100356705756284 -0.060969485605520762 0.0057211937142106865 -0.01879091794552833 -0.05166032479513516 -0.0048558551988264016 -0.027640113500363734 0.01009254748359883
leaf_count=272 42 231 602 354 40 284 234 60 798 138 73 41 329 25 78 60 309 221 47 325 33 58 28 44 80 87 459 56 67 125
internal_value=0 0.216732 0.468216 0.608941 -0.599264 -0.388867 -0.286679 -0.360292 0.755607 0.537959 0.181737 0.981772 -0.63183 0.0527939 -0.425642 -0.549283 -0.68199 -0.392767 -0.924946 -0.887641 -0.722441 -0.975834 -0.88845 0.125086 -0.359609 0.0435006 -0.953164 0.471924 0.0936351 0.683439
internal_count=5600 3968 2660 2280 1632 1047 1308 380 1704 865 576 839 696 503 1074 802 655 299 356 367 264 585 527 478 124 147 499 116 351 727
shrinkage=0.05


Tree=6
num_leaves=31
num_cat=0
split_feature=27 26 22 24 5 5 27 22 22 27 27 26 0 10 24 27 22 1 6 22 22 24 20 24 27 9 0 10 0 19
split_gain=112.686 117.357 56.5122 59.0278 30.7779 26.4615 19.5527 18.104 17.3051 12.3645 12.2385 17.4938 11.7335 11.6296 11.5104 11.0966 13.7449 11.0212 11.4986 10.8982 11.2905 10.6987 10.5748 14.768 10.3464 10.1697 10.0578 9.70072 9.67154 9.01716
threshold=0.90650000000000008 0.81150000000000011 1.0325000000000002 1.0935000000000004 0.88150000000000006 0.82050000000000012 1.0105000000000002 0.75750000000000017 1.0605000000000002 1.0885000000000002 0.82250000000000012 0.88850000000000018 1.5645000000000002 -1.0664999999999998 1.0475000000000001 0.99050000000000005 0.87450000000000017 1.7720000000000002 1.7735000000000003 0.70650000000000013 0.95150000000000012 0.73550000000000015 1.0000000180025095e-35 1.2565000000000002 0.72650000000000003 1.2125000000000001 1.6975000000000002 0.65350000000000008 1.1775000000000002 0.31150000000000005
decision_type=2 2 2 2 2 2 2 2 2 2 2 2 2 2 2 2 2 2 2 2 2 2 2 2 2 2 2 2 2 2
left_child=1 5 3 9 8 12 25 -5 10 21 13 -12 -1 29 -13 16 -9 18 -8 -6 22 -2 23 -21 -7 -4 -23 28 -26 -3
right_child=2 4 6 7 19 24 17 15 -10 -11 11 14 -14 -15 -16 -17 -18 -19 -20 20 -22 26 -24 -25 27 -27 -28 -29 -30 -31
leaf_value=-0.026892568273982145 -0.0018198074835837985 -0.049139701467658732 0.011803174586376282 0.0285833166038028 0.070372584328135215 0.021527319118560748 -0.0084518415853693414 0.040500661923382759 0.044452525144778793 -0.071079050871489899 -0.051427159681273815 -0.014110093022953716 0.01629471827039097 0.023981904242587733 0.031692113600085565 -0.026750228641287285 -0.017655985938328837 -0.063000598166036328 0.04230629182849218 0.006788641613653338 0.048012287280551444 -0.042508680384827385 0.047412398470806555 0.07803322289540672 -0.0051024750963037562 0.057311061946845036 -0.095086012578126558 0.026179293974610798 -0.066506156715099615 0.020603987183684228
leaf_count=749 56 43 184 100 107 240 759 64 163 247 71 129 69 442 99 412 114 35 48 279 416 289 148 34 70 68 42 48 41 34
internal_value=0 0.228708 -0.348017 -0.627004 0.53712 -0.259092 -0.0097917 -0.220541 0.284205 -1.0695 0.164877 -0.159769 -0.464984 0.353124 0.114191 -0.354136 0.0650035 -0.156679 -0.108757 0.791752 0.717427 -0.846001 0.498612 0.288197 0.166245 0.48193 -0.983491 -0.230945 -0.557426 -0.372065
internal_count=5600 3182 2418 1324 1965 1217 1094 690 981 634 818 299 818 519 228 590 178 842 807 984 877 387 461 313 399 252 331 159 111 77
shrinkage=0.05


Tree=7
num_leaves=31
num_cat=0
split_feature=25 25 26 27 25 9 5 26 25 24 0 5 24 27 25 3 1 13 10 5 3 13 27 3 4 4 5 3 24 14
split_gain=169.33 108.548 65.9297 60.5817 27.6196 25.1516 24.2582 23.9892 26.9228 18.3185 17.1149 18.0553 15.8765 14.0891 13.8709 13.3075 12.1236 11.7248 11.4836 11.2864 10.9738 10.7819 10.7279 10.3987 11.2564 10.3869 9.80083 9.64208 9.577 9.40305
threshold=1.0675000000000001 0.66550000000000009 0.77650000000000008 0.90650000000000008 1.5585000000000002 1.1375000000000002 0.85250000000000015 0.86350000000000016 0.89550000000000007 0.97750000000000015 1.6975000000000002 1.2635000000000003 0.94450000000000012 0.93850000000000011 0.96950000000000014 1.9805000000000004 0.5495000000000001 1.3135000000000003 -0.47449999999999992 0.88450000000000017 1.7525000000000002 0.9405 0.79950000000000021 0.34850000000000003 -0.56549999999999989 -0.13099999999999998 1.3365000000000002 1.8335000000000004 0.6755000000000001 1.2275000000000003
decision_type=2 2 2 2 2 2 2 2 2 2 2 2 2 2 2 2 2 2 2 2 2 2 2 2 2 2 2 2 2 2
left_child=1 5 6 7 9 20 29 8 22 13 11 14 -12 19 -5 -13 -14 18 -11 28 21 23 -4 24 -1 -24 -25 -6 -2 -3
right_child=4 2 3 10 27 -7 -8 -9 -10 17 12 15 16 -15 -16 -17 -18 -19 -20 -21 -22 -23 25 26 -26 -27 -28 -29 -30 -31
leaf_value=0.058279249497736801 0.023186751297265787 -0.040371287309234005 0.050883792970153677 0.015113831009609113 -0.041218658389127381 0.016607192668503433 0.021994432249266838 0.052529550218962932 -0.013156167059396942 0.0097867198262740086 -0.073979166268815427 0.053138057825276211 0.022809967003351726 -0.05424363551507503 -0.019995989396257314 -0.016616039035163285 -0.057112668477426055 0.019149606947993163 -0.027483268760758541 0.0024848841740828008 -0.05007105193334449 -0.00021978833304006642 -0.040202580922408963 -0.030471645743298467 -0.021400565852111707 0.043639884042823346 0.030380864132665965 -0.084790534118077465 -0.043273434223432126 0.016763322247873042
leaf_count=31 25 231 234 459 545 234 116 901 139 128 43 166 67 181 151 33 27 147 237 139 108 291 29 574 42 31 28 58 172 33
internal_value=0 0.205756 0.442814 0.574823 -0.56431 -0.265809 -0.330094 0.858235 0.466921 -0.364634 0.187518 0.299026 -0.470626 -0.63153 0.127762 0.827668 -0.00490865 -0.0958748 -0.288294 -0.388983 -0.395298 -0.327493 0.818035 -0.466451 0.248553 0.06036 -0.553058 -0.906268 -0.697205 -0.664315
internal_count=5600 3968 2660 2280 1632 1308 380 1334 433 1029 946 809 137 517 610 199 94 512 365 336 1074 966 294 675 73 60 602 603 197 264
shrinkage=0.05


Tree=8
num_leaves=31
num_cat=0
split_feature=25 25 25 26 27 5 9 5 0 27 22 22 22 27 25 26 25 27 9 5 14 22 13 3 15 22 27 25 26 8
split_gain=153.747 74.6785 62.9554 53.3031 48.4209 26.7661 22.7111 20.2448 20.1534 14.0381 14.3734 13.9208 16.103 16.0004 13.4998 12.3294 15.3413 13.8927 12.0543 11.43 10.8403 10.8267 11.9293 10.6424 10.4214 10.3729 10.0297 9.99064 9.8811 10.7027
threshold=1.2450000000000003 0.66550000000000009 0.96550000000000014 0.77650000000000008 0.90250000000000019 0.87650000000000006 1.1375000000000002 0.80850000000000011 1.6975000000000002 0.91150000000000009 1.0215000000000003 0.71850000000000014 1.0445000000000002 1.0705000000000002 1.9405000000000003 0.87150000000000005 0.7955000000000001 0.8015000000000001 1.0415000000000003 1.8805000000000003 0.7360000000000001 0.69950000000000012 0.9405 0.34850000000000003 -1.4779999999999998 1.1035000000000001 0.89550000000000007 0.78850000000000009 0.85650000000000015 1.0000000180025095e-35
decision_type=2 2 2 2 2 2 2 2 2 2 2 2 2 2 2 2 2 2 2 2 2 2 2 2 2 2 2 2 2 2
left_child=1 6 3 7 15 18 21 20 19 28 -11 -2 13 24 -14 17 -17 -5 -4 -6 -3 -1 23 -23 -13 -25 -24 -19 29 -7
right_child=11 2 5 4 8 9 -8 -9 -10 10 -12 12 14 -15 -16 16 -18 27 -20 -21 -22 22 26 25 -26 -27 -28 -29 -30 -31
leaf_value=0.012288530788624094 0.024068018420805623 -0.042495991684968995 -0.031699583604026603 0.04227609406127486 0.016060699872508057 0.050742157044992658 0.015797939411350791 0.023336084066936356 -0.026825587643730393 -0.024191766445828797 0.018702016278240637 0.027778958345555649 -0.0072158239821684851 -0.065730680401898708 -0.047522718741986707 0.030669379657376147 0.064641592298539191 0.034839393857520072 0.0065463020192192637 0.069661647436787738 0.0080894106407500364 0.0089267893574030473 0.0079606632241629085 -0.038247232417906674 -0.037833702821507414 0.002275745388539007 -0.031349276129300843 -0.034790931573335911 0.042827659107599371 -0.040262816106403178
leaf_count=102 40 160 351 322 576 21 234 114 111 160 156 26 265 255 123 199 499 38 109 44 58 66 196 540 418 72 98 47 165 35
internal_value=0 0.149398 0.319459 0.515955 0.654136 -0.0979627 -0.25266 -0.223205 0.254663 0.209094 -0.0612112 -0.683145 -0.726092 -0.909178 -0.398452 0.929816 1.09835 0.648613 -0.452792 0.396546 -0.580203 -0.375685 -0.440957 -0.587179 -0.680015 -0.669632 -0.103189 -0.0750968 0.603433 -0.125406
internal_count=5600 4473 3165 2168 1836 997 1308 332 731 537 316 1127 1087 699 388 1105 698 407 460 620 218 1074 972 678 444 612 294 85 221 56
shrinkage=0.05


Tree=9
num_leaves=31
num_cat=0
split_feature=25 25 26 27 25 22 9 5 25 9 27 5 5 8 14 5 25 27 5 22 22 23 4 25 13 26 27 5 25 3
split_gain=139.484 89.6879 56.1802 58.8554 23.4395 24.7608 20.5153 19.0123 16.3977 15.3931 12.4962 14.7831 12.3695 12.163 11.2701 11.1618 10.7229 17.1675 11.4517 10.2112 12.5602 10.0368 11.3407 9.88219 9.4946 9.44594 13.0539 16.2791 9.17487 9.09626
threshold=1.0675000000000001 0.66550000000000009 0.8055000000000001 0.90450000000000019 1.5585000000000002 1.0265000000000002 1.1375000000000002 0.85250000000000015 0.94550000000000012 1.2975000000000001 1.0025000000000002 0.98050000000000004 0.88150000000000006 1.6300000000000001 0.7360000000000001 0.63850000000000018 0.90950000000000009 1.0585000000000002 0.59450000000000014 0.81050000000000011 1.0885000000000002 1.1355000000000002 0.013500000000000002 0.98950000000000016 0.90850000000000009 0.89850000000000019 0.8015000000000001 0.44950000000000007 0.86450000000000016 1.8335000000000004
decision_type=2 2 2 2 2 2 2 2 2 2 2 2 2 2 2 2 2 2 2 2 2 2 2 2 2 2 2 2 2 2
left_child=1 6 7 12 5 10 19 8 14 13 11 -2 23 16 -3 -15 18 -18 -5 -1 21 22 -21 25 -23 26 27 -4 -20 -6
right_child=4 2 3 9 29 -7 -8 -9 -10 -11 -12 -13 -14 15 -16 -17 17 -19 28 20 -22 24 -24 -25 -26 -27 -28 -29 -30 -31
leaf_value=-0.0010723790862061031 -0.032065579686550126 -0.025817848130788558 -0.041706760072809143 0.05101366335179694 -0.037546866648071817 0.0057917137227283559 0.015029066991679822 0.019216551694225318 -0.073573436435715484 0.032167953525359685 -0.048250477157948071 0.0042246291995435663 0.053620629139660175 -0.036128219855601378 0.019153854461955454 0.023439751205089562 0.007818585977361691 -0.063999798430316848 -0.017197927927741483 -0.020886475178484278 0.0029597269639691642 -0.021174769179526431 -0.049082723913883491 -0.0037188796176172616 0.052422302980316859 0.052421343073495733 -0.0095669862153275036 0.047955591301407002 0.032057230856236921 -0.08044440319907023
leaf_count=272 305 210 24 41 545 338 234 156 55 223 206 180 595 36 77 280 60 77 182 307 147 51 270 67 27 248 81 199 49 58
internal_value=0 0.18794 0.405503 0.550009 -0.513113 -0.329303 -0.240248 -0.203493 -0.467674 0.177547 -0.547702 -0.372446 0.856269 0.035607 -0.274277 0.332745 -0.19379 -0.652625 0.0382857 -0.357194 -0.471231 -0.590177 -0.681546 0.65415 0.0853431 0.746856 0.505542 0.765334 -0.136097 -0.82998
internal_count=5600 3968 2660 2162 1632 1029 1308 498 342 948 691 485 1214 725 287 316 409 137 272 1074 802 655 577 619 78 552 304 223 231 603
shrinkage=0.05


end of trees

feature importances:
feature_25=45
feature_5=36
feature_27=35
feature_22=35
feature_26=31
feature_24=28
feature_3=19
feature_9=10
feature_13=9
feature_0=8
feature_4=8
feature_14=5
feature_10=5
feature_19=5
feature_1=4
feature_15=3
feature_6=3
feature_23=3
feature_8=2
feature_18=2
feature_17=2
feature_11=1
feature_20=1

parameters:
[boosting: gbdt]
[objective: binary]
[metric: binary_logloss]
[tree_learner: serial]
[device_type: cpu]
[data: ]
[valid: ]
[num_iterations: 100]
[learning_rate: 0.05]
[num_leaves: 31]
[num_threads: 0]
[max_depth: -1]
[min_data_in_leaf: 20]
[min_sum_hessian_in_leaf: 0.001]
[bagging_fraction: 0.8]
[bagging_freq: 5]
[bagging_seed: 3]
[feature_fraction: 0.9]
[feature_fraction_seed: 2]
[early_stopping_round: 0]
[max_delta_step: 0]
[lambda_l1: 0]
[lambda_l2: 0]
[min_gain_to_split: 0]
[drop_rate: 0.1]
[max_drop: 50]
[skip_drop: 0.5]
[xgboost_dart_mode: 0]
[uniform_drop: 0]
[drop_seed: 4]
[top_rate: 0.2]
[other_rate: 0.1]
[min_data_per_group: 100]
[max_cat_threshold: 32]
[cat_l2: 10]
[cat_smooth: 10]
[max_cat_to_onehot: 4]
[top_k: 20]
[monotone_constraints: ]
[feature_contri: ]
[forcedsplits_filename: ]
[refit_decay_rate: 0.9]
[verbosity: 0]
[max_bin: 255]
[min_data_in_bin: 3]
[bin_construct_sample_cnt: 200000]
[histogram_pool_size: -1]
[data_random_seed: 1]
[output_model: LightGBM_model.txt]
[snapshot_freq: -1]
[input_model: ]
[output_result: LightGBM_predict_result.txt]
[initscore_filename: ]
[valid_data_initscores: ]
[pre_partition: 0]
[enable_bundle: 1]
[max_conflict_rate: 0]
[is_enable_sparse: 1]
[sparse_threshold: 0.8]
[use_missing: 1]
[zero_as_missing: 0]
[two_round: 0]
[save_binary: 0]
[enable_load_from_binary_file: 1]
[header: 0]
[label_column: ]
[weight_column: ]
[group_column: ]
[ignore_column: ]
[categorical_feature: ]
[predict_raw_score: 0]
[predict_leaf_index: 0]
[predict_contrib: 0]
[num_iteration_predict: -1]
[pred_early_stop: 0]
[pred_early_stop_freq: 10]
[pred_early_stop_margin: 10]
[convert_model_language: ]
[convert_model: gbdt_prediction.cpp]
[num_class: 1]
[is_unbalance: 0]
[scale_pos_weight: 1]
[sigmoid: 1]
[boost_from_average: 1]
[reg_sqrt: 0]
[alpha: 0.9]
[fair_c: 1]
[poisson_max_delta_step: 0.7]
[tweedie_variance_power: 1.5]
[max_position: 20]
[label_gain: ]
[metric_freq: 1]
[is_provide_training_metric: 0]
[eval_at: ]
[num_machines: 1]
[local_listen_port: 12400]
[time_out: 120]
[machine_list_filename: ]
[machines: ]
[gpu_platform_id: -1]
[gpu_device_id: -1]
[gpu_use_dp: 0]

end of parameters

pandas_categorical:null
